-1.212955993031930912e+00,-8.753947217931376534e-02,-2.744941550282840037e-01,1.554127800913550350e-02,-2.637507417667239729e-01,-4.802977222142679886e-02,3.295751488734528778e-02,3.471227960556318159e-02,9.067126437048707299e-02,1.353612722272371505e-01,-1.621003547981540727e-01,-1.657308827980174537e-01,-1.118330306068281710e-01,-5.287444910871006432e-01,-2.758112026311957954e-01,-3.418175993660600986e-01,-2.054666519088647059e-01,-2.042778816843213441e-01,-4.180780735259159719e-01,-4.127754263626843279e-01,-2.634490189924696968e-01,5.677093824715529619e-02,-2.645566405793323694e-01,-1.926729038686788020e-01,-8.129136319915170050e-01,-6.138481488503871181e-02,-5.105123533789194396e-02,-9.572286438644030115e-02,-2.237883421747924595e-01,1.484515125030339000e-02,-1.481647618727114646e-01,-1.872245874205518412e-01,2.585102663873251050e-01,-7.126973248400504668e-02,1.326434366724493774e-01,-1.361231283444921392e-01,-1.541741191073167927e-01,-6.113195414554398743e-01,-1.945156745309292168e-01,-2.552339909106099425e-01,-2.504762350732189224e-01,-1.674181682844297914e-01,-1.085273057109553546e-01,4.807646978032627944e-02,-2.749343996242362143e-02,-1.395508481935842648e-01,6.298893087792001300e-02,1.133781744714581069e-01,3.289533332062968829e-02,5.632076426784641404e-02,-2.594729392336125873e-01,-1.444911800611786978e-01,1.420169569426031619e-01,1.161829817544110938e-01,1.078605006234099328e-01,2.189508187010477946e-01,2.460499661374454805e-01,-2.198757399619073738e-01,6.963911011477424973e-02,-1.685500056900354413e-02,1.772403960440026571e-01,3.785445513253029026e-01,1.396393737654059164e-01,1.927387876881512530e-01,3.847054619510493212e-01,5.373073620293807862e-01,4.120853603322078285e-01,1.557817887408746542e-02,1.942904272321613890e-01,4.161799922205801638e-01,1.910178927310365316e-01,2.542683533359150205e-01,1.376506095170239030e-01,6.608649391369117998e-01,7.131051047301224521e-01,3.975305575698692140e-01,-1.289804488162360485e-01,-2.368608610456210961e-01,8.547452587128720469e-02,-1.801536793100699252e-01,2.925125274139824816e-01,5.245319256379471495e-01,2.372614139803751465e-01,2.831687923965581777e-01,2.711492964835505726e-01,3.588421105361166291e-02,5.152708797577900679e-01,5.027334696834064864e-01,-5.733917485805248293e-02,3.436750364786514411e-01,1.670529924074267980e-01,7.607298930614643517e-02,4.997961269077105806e-02,3.163222721386878544e-01,5.130398873158398265e-01,2.385950703564289899e-01,6.263970235382558538e-02,3.366149177766353251e-01,4.425900871482672527e-01,1.957399017816058018e-01,1.327937098232074842e-01,6.374352166405602427e-01,-8.401311636471239241e-01,1.278273661403621538e-02,-3.010968709595320814e-01,7.972066662747602228e-01,5.728698586142334515e-01,1.159426845298027059e-01,-3.619411115846035143e-01,1.184598767600579666e-01,-2.720901198123391040e-01,-1.783526126910896514e-01,3.724861999869594764e-01,3.254306615040261086e-01,2.322927109683959046e-01,-9.171024782293731026e-02,-3.939657945925145732e-02,5.285271082935464326e-01,-2.088997842656698245e-01,2.017262708004461391e-01,-4.308980412727920761e-01,5.908037543979166584e-01,2.358367215915085219e-02,5.290560300341481254e-02,1.433067311711870850e-01,-4.426571874394222283e-01,6.320156634183804467e-02,-5.632319188987200409e-01,2.869261951578806480e-01,2.951564531947080683e-01,2.195497993524032354e-01,-2.431424660691516859e-01,-4.273451588258047051e-01,4.965073499269576640e-01,-2.949357944929433817e-01,3.785256202511390056e-01,-5.554110024514954946e-02,7.113517110677824995e-02,-7.752790148435767525e-02,-2.405495632359148372e-01,1.056877683261649326e+00,-3.936861510968717726e-01,1.040967828599639045e-01,-4.972212137682557320e-01,-1.315158707120674120e-01,1.020975311288624954e-01,-1.168964299113937899e-01,-3.161678481744578106e-01,-3.912723779576236516e-01,-1.971169691544725489e-01,9.409493658061481025e-02,9.924006268668853492e-01,4.886381848895097746e-01,-7.393984194999364545e-02,-7.382021063448674925e-01,3.144840745090185519e-01,4.160506829297266340e-01,-6.758310235676023847e-01,1.578016714435072354e-01,-2.530370676693575738e-01,4.496147103950085544e-01,-5.263905496009519541e-02,-1.000036603527658247e-01,-3.895787062262842659e-01,-3.847535069129573437e-02,5.319458399899508194e-01,-8.076327298928918097e-01,-8.592713805684056017e-02,-1.424533585046271200e-01,2.484564578669179180e-01,-1.183289170436664511e-01,-2.285269775208479681e-01,6.400540331359045876e-01,-6.164309807952319392e-02,-1.277658109587586910e-01,-3.439693440188974494e-01,3.465862655079097188e-01,2.219598272794904292e-01,-1.278440899401988018e-01,-6.222392602475442791e-01,-1.579002985232707823e-01,3.580232823113052576e-01,4.223570895749710896e-01,5.754862929828401252e-02,-2.799095254773154573e-01,4.932914760012857558e-02,3.128570336151882958e-01,-8.916089833325172576e-01,5.558574143354585995e-02,-6.260086548124747796e-02,1.199565458310439536e-01,-6.218320340539332802e-01,-3.747185764614726078e-01,2.089236568602534372e-01,2.304584128154113232e-01,-4.142166079865445272e-01,1.216312171019163918e-01,2.126332424639446328e-01,3.650313332872259786e-01,-3.481780553530204880e-01,1.048982110408919061e-01,1.487540968318472601e-01,1.577472707953482267e-01,-6.045444871502951567e-02,-3.905216591846609464e-02,-5.798756926536171447e-02,-8.758167521424220503e-02,-1.034872687629539989e-01,3.363305759962977991e-03,1.299876567018268536e-01,-2.230121461214468193e-01,-1.729791170913450027e-01,-2.615592623354151547e-01,4.923427592562534261e-01,-2.745984951427997423e-02,-2.679485746919426647e-01,6.046374585420380421e-02,3.783522769487444176e-02,1.209401038372614617e-01,-3.398590606305277317e-01,1.864004997667556007e-01,-1.432441368660246628e-01,5.852841070501171167e-02,-3.680436058773289658e-04,8.882286501963530811e-02,5.354157023880000699e-01,5.067016925827486640e-01,-2.284163705006224121e-01,1.606310676416126959e-01,5.290117456990971537e-03,-1.767040182661708536e-01,3.808725307927146586e-02,4.015236488604959769e-02,-6.821890945975216114e-02,-2.369674269031056268e-01,-2.975970370692773009e-02,4.907587056769286971e-01,-6.854773030770820730e-02,4.277927296449348105e-01,-2.666341571513983211e-01,4.499332252356268852e-02,1.686662037005525264e-02,2.116127579736654107e-01,-2.568089803837334539e-01,-1.208986241357694891e-01,2.641942420613898057e-01,-6.504348905734524955e-02,2.193287673771786017e-01,5.531885709747051960e-01,-1.715177644417552882e-01,2.827194004309485087e-01,1.049203236749363111e-01,-5.996252660822706110e-02,-5.324655724394646711e-02,9.266308739198514388e-02,-2.117543507067796149e-01,-1.237106914932438184e-01,5.214714347348923390e-02,3.602880193492722927e-01,4.845048694123529724e-03,-6.574653777923686326e-02,9.169167834515984383e-02,2.087728471964893362e-02,-3.696237377582964334e-02,4.952461619676036819e-01,-9.578520163793789732e-02,8.356460146192280780e-02,3.090756972551121917e-01,2.278111855881435888e-02,3.833900542593627891e-01,2.534616090708047276e-01,-8.374130736332696667e-03,-2.085269671306612949e-01,-6.253676920278269935e-02,9.184624423627399392e-02,3.482786958324811111e-01,3.025930032943959236e-01,4.095144894001694347e-01,6.446323953478683144e-02,3.668914196725478472e-01,6.466209972954691798e-01,5.494098771634704503e-01,2.828989817979244425e-01,1.257640807425653151e-01,-2.550386047870449591e-02,-4.213479702444899444e-01,-4.803824455163302476e-02,-4.576685936308628744e-01,-3.156117985247013924e-01,-4.399723625595626242e-01,-2.492182896987059082e-01,3.992054962057184006e-03,-3.265384473569531987e-01,-1.702575693728305417e-01,-2.911581308955242808e-01,-1.648219507930065719e-01,-1.096161837674382022e-01,2.182428934682296706e-01,2.291928665351529171e-01,1.561550531780295237e-01,1.091860897748962167e-01,-1.347656766479847223e-01,1.015581713442017912e-02,-1.679478732504753992e-03,-3.745429028876574029e-01,-7.925038445093277595e-01,-2.075899734556153842e+00,-1.428412125600181160e+00
2.288442777022051011e+00,-8.364739288152609475e-01,5.027960760729138778e-01,-2.940192500091281524e-01,3.245048364135024732e-01,1.209610860036913343e-01,2.595223062967241257e-01,1.728026146564932419e-01,7.005429177808630316e-03,-4.852885534656936270e-03,2.768662802737679729e-01,8.104518179464291761e-01,6.066961893685171026e-01,1.133584720781713573e+00,1.064510050552595066e+00,1.044187874352310308e+00,7.185268099274678688e-01,-4.397823787830981157e-01,-1.887361419542011032e-01,-2.845542805327170299e-01,-2.484387401544950469e-01,-5.927130059517384808e-01,-3.045218416497115846e-02,-6.202218663206913174e-01,2.693285091079729021e-01,-9.880485424590325083e-01,-9.782248170360214878e-01,-2.760862993865578763e-01,-1.092136148117762939e+00,-3.298985130590540993e-01,-5.448252218280540404e-01,-7.408374958104492203e-01,-3.124266902010304769e-01,-1.577223225579235333e+00,-1.349250228856823663e-01,-7.447653756233281186e-01,-8.131572431201568030e-01,1.061695701377038947e-01,-3.846627039716749019e-01,-2.577862008303308805e-01,-7.456419247344610035e-01,-1.567044172614407149e-01,-2.140305683170934947e-01,-3.474562237661187325e-01,-5.859431953095383117e-01,4.313941575077653856e-01,1.814178635262613526e-01,-1.351727262179844812e-02,-3.082795168174340406e-01,1.729822605361184262e-01,-1.117742907231233929e-01,-6.514664352716503792e-02,-2.695799334285710058e-01,-2.114302615970359289e-01,-3.599985771251780209e-01,-1.980521660700732545e-01,-8.386388426994657863e-02,1.655672078664452984e-01,2.394386217638792280e-01,3.478758926449606048e-01,-8.411330947048294149e-02,2.057265908226130757e-01,-9.922331581719132099e-02,1.964748349186536958e-01,-3.880551161730493859e-01,1.991765925381625002e-01,-7.037088102427122016e-02,-1.671791977598109380e-01,-4.665582168023005294e-02,4.377730479583791245e-02,2.788760552976844997e-01,4.413824818268558547e-01,4.620996165249304788e-01,-3.891134620748586403e-01,-1.877723761811170289e-01,1.592851799965710469e-01,-1.509030815413442694e-01,1.933776043819124824e-01,-3.909900446826490850e-01,2.693893501101577992e-01,3.179294205018892150e-01,-4.622434964601697671e-01,1.545615265654888271e-01,-3.034589866804696667e-01,1.794807679034373105e-01,-2.692760301953867758e-02,6.035653502936661613e-02,1.001946612918870883e-01,1.997772975259929362e-01,2.342646452934540879e-01,8.445176662750029928e-02,3.523391265654110538e-01,1.933535906065690368e-01,1.574610716866520488e-01,-5.236490160849442965e-01,5.592807105088083014e-02,-1.481944198669960799e-01,-8.195030533250989568e-02,1.975815557579564119e-01,2.187764079731849554e-01,1.532735978507251684e-01,-2.102186077555971144e-01,2.342580683898006777e-01,7.468426294493128725e-02,6.881526710250579493e-02,2.694689477251881460e-01,-3.177924527604520377e-01,5.306537142014756681e-01,5.282316304764829440e-02,-2.205927585138428570e-01,-9.008731842555581237e-02,3.618230364776003904e-01,-1.976081363097046684e-01,-2.699919311336137495e-01,2.534681140517320297e-01,-2.932846032564426220e-01,1.174739424991831233e-01,-3.093992625897064030e-01,7.671979844102047585e-02,7.472189089513710247e-02,-1.249853451028701684e-01,1.501033233850008475e-01,-4.422291148398669880e-01,6.348292277282688856e-01,-7.601506940117467304e-01,4.575568830590113212e-01,-5.978005313761599604e-01,2.942473662852264638e-01,-8.194963019338515064e-02,-1.317599267772459892e-01,6.258940611438065238e-01,1.949145775438630365e-02,5.095449216258371994e-01,-5.097525370194754268e-01,3.192998135625969569e-01,6.845408812454165104e-02,4.602740885787899583e-02,1.223001035286658683e-01,-1.354725391380034727e-01,1.857493223208735444e-01,-1.006983887078549467e+00,6.029123801120648274e-01,-9.953889903442698639e-01,2.600904914180823466e-02,-4.265798774017257600e-01,2.467276824315949579e-01,1.742591865625838302e-02,-1.544912361928777733e-01,6.414559055290545153e-01,-3.493014832673900782e-01,6.832601373525805377e-02,3.287711837647009500e-02,-3.008018543412159795e-01,1.315287506794697858e+00,-8.657698211176710901e-01,1.039665493936246632e+00,-8.303639091279418905e-01,6.253542175250886848e-01,-4.531494023908667623e-01,1.177655418889567290e-01,-6.642961746085465635e-02,7.584857311280861214e-02,-1.643912706895349629e-01,-4.055569700729486082e-01,2.296201111729940791e-01,-6.985009915783988443e-01,7.306732593136320286e-01,-3.898574743032777734e-01,-6.922977939350466459e-02,2.756011033817413192e-01,-1.616080774760434158e-01,2.921256813278240716e-01,-3.125855196988535645e-01,4.575702623269738978e-01,-5.021483260254698822e-01,4.050445809757166615e-01,-2.221090068416792518e-01,-1.271485999574067938e-01,2.648879245406564054e-01,1.411983327745349182e-01,5.004181033990353633e-01,-5.025207615559488250e-01,-2.525164582721511203e-02,-1.457129069393974241e-01,-1.175759985462129092e-01,4.484061114998690728e-02,-1.235507917345926437e-01,1.754634488975242712e-01,1.267295374887736914e-01,-1.433645322085872476e-01,-5.603558899239867719e-01,8.076216091675264552e-01,2.595445253644764194e-01,-2.497550162757798675e-01,-3.385383125702762230e-01,-2.356045227243820303e-03,-1.348575634518272282e-01,-6.801274554857997812e-01,-2.619985163849714582e-01,1.788310363076412723e-01,-5.111340789575200549e-01,4.113436893363804359e-01,-3.868573471391448249e-01,7.971633329277993951e-02,1.869905814630566654e-01,-7.176657604308380733e-01,-1.644565574599487767e-01,2.703681094871216439e-01,5.726688078509883928e-01,-9.324641850105097607e-02,1.919028690898793854e-01,1.302473756210404399e-01,-2.860625384449136943e-01,4.360635621843113596e-01,-1.152993211284862318e-01,7.820383830193660124e-01,-4.902821007226317029e-02,-3.433683094732848384e-01,-2.740460440964695987e-01,6.019139022423957153e-01,2.076573412393253049e-01,1.365987647448170250e+00,6.775574575880985440e-02,-3.952094959258850015e-01,-1.385416413290860571e-01,-6.424636090279157719e-01,3.023647227399379189e-01,4.597355968576948837e-01,-8.311362003691302736e-01,3.988325359769138156e-01,2.747398489435536884e-01,-4.717776881340589590e-01,8.188589629456818897e-02,4.825847597584916882e-01,6.198716573636080529e-01,-1.047652512264301228e+00,-6.776554635540463778e-01,5.922482047210505390e-02,-2.841159673556824528e-01,4.409117284993682717e-01,1.571032897244884485e-01,2.351652075278139464e-01,3.584848568210075581e-01,-2.636111202075234750e-01,-3.345170024740394821e-01,-1.460692333761512973e-01,-1.685845499404283743e-01,-3.384148923886862725e-01,-9.964927451777849665e-01,1.185853572874032702e+00,7.153963219822275788e-01,-1.243781032770805567e-01,-2.963577132334858089e-01,-2.873002267419151878e-01,-8.435017298879649017e-02,-4.056629561154446728e-01,8.271677181235219667e-01,-6.509747130593886988e-01,-4.626138132388304958e-01,-3.452426179479823332e-01,-3.616833363208395991e-01,9.286939560079411349e-01,1.030748110789874383e+00,7.441917072897259733e-02,-1.350725412050091945e-01,-4.396256262546396343e-01,-2.310927812800098180e-01,-1.464822005358409340e-01,-1.577707188881075917e-01,1.386750909258090136e-01,-5.972787557835785854e-01,-9.706269062045820295e-01,-5.213536010065360493e-01,-5.220843709149983747e-01,-3.843611662082176139e-02,4.465581239886253773e-01,-2.993028336865953265e-01,-4.056543661278052548e-01,7.021591352186974666e-02,-5.107778078156313128e-01,-1.011249393673546271e+00,7.167243343407061484e-01,-4.053766506438378214e-01,-1.052240639605307226e+00,-8.860902704158694909e-02,7.520926509031761187e-02,7.668052500643363079e-01,-4.413375858591337964e-01,3.945834174094389746e-01,-1.138410708868674431e-01,6.359586337355226382e-01,-1.440327464579019279e-01,7.119873911533518562e-01,1.123111050218370766e+00,6.783430892892668984e-01,5.763685636382323008e-01,4.284596072883530837e-01,6.548167667044894058e-01,9.058848163206231208e-01,-2.855956964531050080e-01,2.108933971407504770e-01,3.931696653638819261e-01,3.144307960207996522e-01,-2.820484512834962043e-01,1.371149504952704767e-01,3.079167741505912104e-01,1.455073735742008489e+00,1.300522470724481572e+00
3.386978993058757659e-02,2.935463276600572824e-01,-5.132246852172327178e-02,4.148639952452349289e-01,3.736717878011588390e-01,2.552389117049694844e-01,1.894297086533204277e-01,2.636534085167235308e-01,3.032887582666251025e-01,5.691590032456031456e-02,1.530737556722070458e-01,-4.935069595845306689e-01,6.343779999257816160e-02,-5.987638436759248339e-01,-1.961563804662124766e-01,-4.937575597539835270e-02,-1.790171022847134863e-01,2.202062364984022913e-01,-6.211153028585689184e-02,5.068853177928916987e-01,1.147431362883282457e-01,4.732305113214868020e-01,4.528423455146094595e-02,2.517944111214862057e-01,-5.319000013498396129e-01,3.615001933557117630e-01,1.814088552631678009e-01,-5.868566825905222745e-02,1.774766609256733796e-01,3.416909579345746018e-01,3.213871440514842193e-01,6.084315382317045939e-01,2.868759023447953194e-01,-1.172591541662297704e-01,5.045738823593068356e-02,1.359564554237862044e-01,-1.531301780189574246e-01,-1.002776367735035562e-01,6.291716889039170590e-01,3.770138392149210982e-02,2.871870002368759889e-01,-2.174646027299916573e-01,2.368335993326774747e-01,-3.072845274040154617e-01,1.437955176505836541e-01,-1.905039159087539291e-01,1.387498383181752226e-01,2.147634607919224614e-01,-1.909075170653757869e-01,2.288549531562082129e-01,-3.429950872526421612e-02,5.025397835761554605e-02,-5.006444564390907098e-02,1.498996570298143927e-01,-3.922761188597301274e-03,-9.469491217032273422e-02,3.852646944078758767e-02,-4.816603207182829083e-02,2.772113398117723171e-01,2.012856165976980027e-01,1.766869113867690910e-01,1.869378215155377901e-02,1.481087461829746765e-01,6.446297399183717469e-02,-2.067900317156676215e-01,1.855469597494270317e-01,5.678600188721134173e-02,2.956341919728179279e-01,3.626003341810545011e-02,1.784291416812743281e-01,-3.300200511692440684e-03,7.949036233031023246e-02,-4.711225014935004063e-02,5.016239613011879567e-02,-2.113729486150876802e-01,-1.827077810126761792e-01,1.843608300903573916e-01,2.811289308912596763e-01,-6.558338201148834756e-02,6.450303227165642139e-02,3.247637161861773314e-01,7.928890170100955093e-02,3.778269805045371410e-02,-4.684622719028941340e-02,-3.782244101520524510e-02,3.144345337044213706e-01,5.920831424085756800e-02,2.693854080121091399e-02,-2.114884844129591157e-01,-9.599344757415317897e-02,-8.029809203395094075e-02,4.262033236712766543e-02,2.234542685044467181e-01,3.171775382975694502e-02,9.238715919371835728e-02,-2.037646584988389298e-01,-1.852069500101510488e-02,1.429546741548083921e-01,-1.894096277736198874e-01,-2.412987803537388898e-01,-4.105740554029631562e-01,-2.401366334072652653e-01,-4.182973733915743009e-01,-4.106011552715700952e-01,-2.848668611358095015e-01,-1.314529054479944004e-01,-2.585528936885670981e-01,-4.351374987149670970e-01,-3.130166479075527919e-01,-4.320739621024697330e-01,-1.799998093283691480e-01,-1.713470745641399451e-01,-3.976060454172153924e-01,-2.411935339912391063e-01,-3.594053456363429100e-01,-2.152998703031192285e-01,-4.621478234865992185e-01,-8.136515550935592422e-01,3.745720646335058517e-03,-2.094924493350220907e-01,-3.635509293476691384e-01,-3.772541686563114505e-01,-1.584832203240777448e-01,-3.277285722667423462e-01,9.882122628886388926e-02,-6.659664025841881552e-01,-5.028113131384313039e-01,-4.270759521341188636e-02,-6.929981750528760864e-01,-2.396259652164163256e-01,-3.472136861876259917e-01,1.098738157816598303e-02,4.298810599873772315e-02,-2.685082814193024969e-01,-3.062904898171508461e-01,-3.570563423764915867e-01,-9.143794130004986170e-03,-1.914891432735645327e-01,-2.791429788500630615e-01,-5.572057229249900434e-01,-2.640406538905847866e-01,-4.598952251646212241e-01,-3.646115398605014879e-01,3.424986785252838450e-02,-2.818352978016340216e-01,1.440508896362731606e-01,1.092493131980959292e-01,-8.452244034024438248e-04,-7.001701030243435986e-02,1.672377533181146070e-01,-9.553759513307383267e-02,-3.976360792080579354e-01,1.366969706162769194e-01,3.079023888984799839e-01,-4.149399385607335233e-01,2.058932891397221090e-02,-9.201575725310849607e-02,1.947825619959173971e-01,-7.088172476127289900e-02,2.446845996848429627e-01,-4.475908590774262397e-01,2.214571986346327015e-01,8.990436170686222361e-02,1.765109798173466193e-01,-5.663374540703392662e-02,-3.580525687430258786e-01,9.356256738719719024e-02,-1.517045805157329619e-01,2.004949505704433366e-01,-2.207845186331858500e-01,-6.075859642141615002e-02,-9.542730161447450510e-02,-4.359744411215203397e-01,-3.654220553567115726e-01,1.229567931976284223e-01,5.964348207486708242e-01,2.724887300034077586e-02,-1.360586310023222112e-02,-2.959428318309670347e-01,-1.093666677721550212e-01,-1.104199822069931863e-01,1.362022016904486654e-01,-1.495813325272697114e-01,9.220671572550643777e-04,3.370276498484714445e-01,-1.018204163164402182e-01,2.143158606215655737e-01,-3.610857975028568950e-02,3.158357572941619673e-01,7.206527378001524597e-02,9.563113630449475433e-03,3.406246023103205040e-02,-2.191480397340398456e-01,8.337039372578237961e-02,2.825174403222168729e-01,-1.314438564513591423e-01,2.223409141622938179e-01,-8.486942176423757644e-02,-4.117402086685564844e-01,2.627320512459131452e-01,5.188186910366662796e-02,2.591528832314312636e-01,-1.951937609224862480e-01,2.312578451250099365e-01,2.475250566815768716e-01,7.798912686005074479e-02,4.413560424648491076e-01,1.449851709880290926e-02,1.343117017156035264e-01,-3.974924976184955328e-01,2.595064029315328341e-02,-3.327640630896080420e-01,2.066125942102469137e-01,2.385860286764296956e-01,-2.436671903335316247e-01,-2.033764404457918257e-02,8.549812025155896500e-02,4.715942877179072346e-01,2.927586733256328788e-01,3.697277332868867950e-01,9.231889620141799091e-02,-5.928357774041204814e-02,-2.589870922090578009e-01,7.169165997616946395e-01,3.894368136683864501e-01,2.463152552017999208e-01,6.023128178526081233e-02,-5.463134072375493838e-02,3.275127857589801295e-01,-2.176788756842999994e-01,1.308389981299583893e-01,1.943620012651665341e-01,1.368740872132939990e-01,-8.314105529178535126e-02,-6.327391968644388576e-02,1.291178536250419395e-01,1.965098368562970613e-02,-1.247811294720386627e-01,3.740150811984807033e-01,-5.710784834684376476e-02,3.229730067686827910e-01,-1.519718794786638176e-02,2.759477428593267584e-02,-1.413212764803789268e-01,7.771282075548117951e-02,2.582073040780947897e-03,-5.241549741556143088e-02,2.918880096229530263e-01,5.357430237250098148e-01,-1.122730829332278524e-01,3.042334280430392286e-03,-6.460914217226102450e-03,2.424735265440131071e-01,3.004596144821331527e-01,-2.253369934952912657e-01,9.665502567142331136e-02,3.141382776649812580e-01,1.409351880081111119e-01,4.212977081845371563e-01,5.375410190669644983e-01,5.445115759162620916e-01,1.765372326070034636e-01,1.503731853940378990e-02,4.386160460836416863e-01,-8.177350831277480081e-02,4.244021293817900609e-01,4.196782173752334200e-01,2.847384594077265185e-02,3.561686981057895496e-01,-1.492251634078777256e-01,1.045747323452819455e-01,5.120197774668647783e-01,7.871242603882185884e-01,4.047513331617301757e-01,1.120418487311602984e-01,3.771408366106971388e-01,1.892346862242197669e-01,4.865880611574048276e-01,3.326690013658048506e-01,2.274873327378767740e-01,-1.111650036648425127e-01,3.259305720181113197e-02,-1.132071711135401379e-02,7.693555279547672487e-01,2.164321058945065934e-01,-1.052723876455395197e-01,-4.072828933252397449e-02,3.606291671619690220e-01,2.418445934681275611e-01,3.539875498654512231e-01,1.029584213755548733e-02,7.476852999556073132e-02,-2.944039940380863141e-02,2.153592673982068079e-02,-1.433571975197412696e-01,-2.329346144586968634e-03,-1.439134503012115263e-01,-6.966024872426753722e-01,-5.358439724387674685e-01,-8.234630090875941777e-01,-1.096541515557940327e+00,-9.195893733150455329e-01,-5.477390279343579138e-01,-3.752842314090287235e-01,-5.221302263371553343e-01,2.179006796163710513e-01,6.829470946829980793e-01,8.551627353192441383e-01
3.432529212286730691e-01,-1.144211630310300182e-01,2.180680546054911684e-01,2.534279575597082057e-01,1.421432896160776116e-01,2.376966734632786071e-01,1.210650977303295434e-01,4.040659864331631046e-01,2.164837134005267449e-01,1.928679292911204546e-01,-8.645722112765798217e-02,-2.786122214268778319e-03,-1.226323314190686103e-01,-1.883367187422903266e-02,-1.086004455385137513e-01,2.883342245406931431e-02,2.825933953930881426e-01,-1.479419942168243990e-02,1.076090209174945661e-01,4.225815861196775824e-02,2.903975029398905838e-01,2.616881274235993704e-01,-2.809529178484267836e-02,5.376619334255341442e-01,-2.290773385947603158e-01,2.796989815309995908e-01,3.875338693676674828e-01,2.426430279900477771e-01,1.071906062556517714e-01,-1.706810664292141566e-01,2.477654978884895054e-01,-9.250131547392589915e-02,2.848599193205684221e-01,-1.026046023929391426e-01,-4.071692704603635526e-02,-1.117251618423616838e-01,2.472306344596891109e-02,1.731113564335376720e-01,-5.301010817870545344e-02,1.094707716661260169e-02,3.094505406946753551e-02,-3.874756143122941310e-02,-2.795397803075581056e-01,-1.419812590370108651e-01,2.481134987327625677e-02,7.253058355770845844e-02,2.075151456772464098e-01,7.391230860688427148e-03,-8.452229743670551521e-02,-3.354505204300697180e-02,2.669087180792312653e-03,2.045720797633414079e-01,-2.978900687414798298e-01,6.419797426241794121e-03,-8.665864261329392360e-02,-1.440446371401002124e-01,-4.369106721910184787e-02,-3.027313671453925603e-01,-8.202593772078725642e-02,-9.387764572275707209e-02,2.629717500318328252e-02,-1.228073722246832700e-01,-1.073295150381728125e-01,-1.819328643342456309e-01,-1.563136644460544622e-01,-2.148375421771840099e-01,5.153134634614685641e-03,3.848375130907473740e-01,-4.598948228231235502e-01,-1.853332999715351648e-01,1.192556855364389490e-01,-2.405148635212537023e-01,1.233445175788780018e-01,-5.981590005973887875e-02,1.061268174190623664e-01,-2.204711786549624734e-03,3.831010648582592326e-01,-8.317138006225159585e-02,-2.855278350944683297e-01,1.725806567183535978e-01,-2.813260947263795941e-01,-2.225029857341832007e-01,-1.940723668902213372e-01,1.359850668322055145e-01,2.864780010601532950e-02,-3.221487275133594341e-01,-1.392124467958300547e-02,-2.396365963293231038e-01,1.952830866180954028e-01,-1.177147626315311474e-01,6.910120901075045285e-02,-1.341137156681120601e-01,2.369149897489403189e-01,2.024815799872436706e-01,-2.136595963634667361e-01,-6.675825412077721066e-02,-4.296937345954470189e-01,2.029568390326973726e-01,-5.394163591507199207e-02,1.744385657625009967e-01,-9.061527381621810318e-02,-7.289113934195146430e-03,3.728570613860029276e-02,7.253141261227982750e-02,-2.977691990389315368e-02,-2.483100258438311336e-01,-8.887389629279660161e-04,-1.412041609880779203e-01,-6.975858861531833433e-02,-9.331201805033309538e-02,3.295918872893040946e-02,2.233231161782886776e-01,-3.263298014639675615e-01,7.413648679930165408e-02,1.471893175446200297e-01,4.227172811919130413e-02,1.557707932898039771e-01,-1.250855753085434452e-01,1.983251188775434493e-01,6.510026696105636335e-02,9.358072774405921945e-02,-2.834729216852425182e-01,1.739094170503285020e-01,9.944399957234309473e-02,1.288133792893034722e-02,2.784693357792204782e-02,-7.019908476895529714e-02,3.422726516776610772e-01,-1.524586222219330711e-01,1.479231838216579220e-01,-1.288055732663066083e-02,2.922700678911984706e-01,3.163721230346120405e-01,-2.800539460767895727e-01,2.753202686013545009e-01,-2.981627802588237564e-01,-1.100977183177021396e-01,1.089780620204477829e-01,2.473883432720852815e-01,-1.739394832243542077e-01,-1.699113951835387326e-01,1.633750708144456332e-01,-2.258017798264722042e-01,5.085181139480190460e-01,6.335167713118954047e-02,2.309369634469248533e-01,1.427229419029873436e-01,1.192610151102428406e-01,1.015010939149537800e-01,-1.191334090681189783e-01,2.275177624616285255e-01,-1.641462099119614659e-01,-4.994379398741910503e-02,4.174994876902874408e-01,2.439556409997614694e-01,2.338540574412927842e-01,1.537403943182891284e-03,1.737231401446235612e-01,7.126051456849466503e-02,4.164785486805673287e-01,-7.096097126477064754e-02,1.886139472330923550e-01,1.960131946014107285e-01,1.630518453649960897e-01,-1.383042805678697529e-01,5.644527566526616469e-02,2.478566824599822416e-01,1.868337758260581738e-01,4.723011713197743933e-01,1.129474428950217602e-01,8.602633447919892651e-02,-1.767359519673170759e-02,-3.131625113556373852e-01,-1.291363393922838054e-01,-1.116908646043463932e-01,3.641680286957725277e-01,-2.750465060622655361e-02,8.726201878400886847e-02,-2.371699947245537454e-01,-5.150262181327621563e-02,-4.341009824816144391e-01,-1.061275799521839945e-02,-1.611595808594625326e-02,2.860703999643000872e-02,8.228752529278282601e-02,-2.621582579616452136e-01,-3.029088746333323812e-01,2.124404682758949253e-02,-1.136962881188618990e-01,5.176649297627495400e-02,-3.346399716785976308e-02,-1.734602883415306274e-01,-5.213617295800220264e-01,-1.706557769201884900e-01,-2.924543786706832460e-01,-1.552325337899051472e-01,-3.852284899120857475e-01,-2.654193568518906088e-01,-1.950035094661745350e-01,-1.892998776046811993e-01,-1.013114872717291864e-01,-6.375716662060945117e-01,1.346132082749372794e-01,-4.544593200302988190e-01,-2.938536690762861281e-01,-4.475311483566319359e-01,-2.907541131886920427e-01,-4.061076264516429446e-01,-5.370245661184039898e-01,-1.660819614729668325e-01,1.277202816713647882e-01,2.664100930462108829e-01,-2.315393616440613589e-01,-7.062489011657174798e-02,1.265144754897881973e-01,-6.321516562197762590e-02,-1.687148666516268269e-01,-4.625644060785481515e-01,-3.308893132953845129e-01,-3.269141979776927776e-01,-3.717564709799932587e-01,-4.026259876222448297e-01,-1.743256137833315844e-01,5.703318917879899447e-02,-2.271725048787743562e-01,1.830230174252740205e-01,-1.439600936505279760e-01,3.589862560424363913e-01,3.774788596885150227e-01,-1.630001074871554878e-01,-6.557620625017454574e-02,-6.207195636234805747e-01,1.602405649285683908e-01,-3.553319025390277996e-02,-4.640899284347781428e-01,8.152331727048901799e-02,2.649302007197674724e-01,2.121149096319052407e-01,3.694630637064125200e-02,6.273722265244484342e-02,-1.822411979630012002e-01,1.946581694605927781e-01,4.660106461708312005e-03,1.652890509720193052e-02,-8.279200023962349046e-04,1.767223895103805231e-01,1.633074916370844398e-01,4.549295558480593443e-02,3.017999818639875986e-01,-1.731491608763323364e-01,9.870844736914014331e-03,1.337037551357478371e-01,2.038749405475800136e-01,5.973947387624335692e-02,1.954150347406622135e-01,3.806995725574216505e-01,-2.143970293985366371e-01,2.644251973347254703e-01,1.568136430873964537e-01,4.525272858435103879e-02,8.801930938090925249e-02,-1.001540362471360218e-01,-7.723663210646300459e-02,-2.463416323140278641e-02,2.704112212912392343e-01,5.403232895810303749e-01,5.830212699535935322e-02,3.899000627768485217e-01,1.815008007322838901e-01,1.678828429638157815e-01,1.222848412465620122e-01,1.322148853974727534e-01,8.754396057707119691e-03,3.827633641544725407e-02,1.743925576392990340e-01,2.492560690748039931e-02,2.399399562869797276e-02,2.858030380156948991e-01,5.528920151666071314e-01,4.580439441872142248e-01,5.082525043187083869e-01,3.995883580385811151e-01,4.068830726133880193e-01,3.420970082607107665e-01,6.796477230343449527e-01,3.211171944783209331e-01,3.964990208950721073e-01,1.233514077059568864e-01,2.156827800520710048e-01,1.169682545729706230e-01,8.308399795514805064e-02,5.501044134360156407e-02,1.193003641589676783e-01,8.066008889215736666e-02,-1.143686930760134390e-01,-1.268491581006230828e-01,-1.052008056678827297e-01,-3.155155394311961459e-01,1.485410065828617621e-01,8.597274863571259529e-02,3.945490564180554327e-01,1.166843242121265167e-01,1.752051719472098867e-01,1.438653838129083096e-01,1.259047902719560574e-01,-7.751682789380970329e-02,-9.914169576989926291e-01,-1.287355278773595790e+00
2.745365541237093088e-01,-3.749075133563653517e-01,1.886572779474385980e-02,-1.337259324292349172e-01,-6.450934192050302926e-03,-3.177647098089794730e-01,-5.962484962046610271e-01,-4.649897453999826125e-01,-1.365724159063865351e+00,-6.340643193441741765e-01,-8.415853694462648305e-01,-3.779946165698740423e-01,-4.551815917396874744e-01,-3.208685450421876473e-01,6.931640447062500932e-02,-1.912660714131805550e-01,-1.767139482199577005e-01,-3.326100441753456205e-01,1.488147949498277167e-01,-4.636072259025920128e-01,-1.921253934072863767e-01,-4.061474455929691141e-01,-5.877794858229538066e-01,-3.461701940002350764e-01,1.406192535147410549e-01,-2.597334951213298160e-01,-6.308861275462838147e-01,-3.764070693900169462e-01,1.950348379337595028e-01,-4.452429735847616143e-01,-4.382441814193691054e-01,-6.938565136699010871e-01,-7.349869723940496424e-01,-1.404571127714147327e-01,-6.042553774510445175e-02,-2.676272030599098906e-01,1.573171979288684186e-01,-3.667319978534496205e-01,-3.757723758234183808e-01,-8.181476554458961825e-01,-5.329011726009938998e-01,-4.142694076279794246e-01,-6.439688299452110964e-01,-7.531203939964704885e-02,-1.163917005610481947e-01,-2.422278075349063586e-01,-2.153646644745144945e-01,9.092320092854705785e-03,2.789906910446833879e-02,-1.859627676817895703e-01,-6.716543393756683675e-03,-3.717168464452946242e-01,-2.581577843804624961e-01,-4.848182873473805832e-01,-3.396733043461445112e-01,-2.788107938971875477e-01,-2.084292197281540637e-01,9.574198015352565483e-02,-1.859498520865617843e-01,-5.512439918606955314e-02,-1.631771908076327382e-01,1.908542902639452088e-01,1.503520962218784229e-01,-5.359792713542003290e-02,2.890990673446569015e-01,-4.986104173655842020e-01,-1.696395687518874665e-02,-6.301776333932058716e-01,1.670570478635732478e-02,-1.135804772682599273e-01,-3.699490233747518841e-01,-3.099388448954804726e-02,2.311358346691529952e-01,-1.430804388830793361e-01,-7.666809044888334146e-02,-3.156969758519164171e-01,-3.861814976061952454e-01,-1.864433546202680925e-01,8.148626058823452145e-02,-2.546355589280899778e-01,2.346205869337233962e-01,1.220074144589129855e-01,2.207840913820114104e-01,-3.529619791789487260e-02,2.353203211658471961e-01,4.133664601412000428e-01,7.761497402343851826e-02,2.050883068872410009e-01,1.560481238615427924e-01,-2.867115653001828246e-02,6.246390236928044126e-02,2.445819967517625509e-02,-1.989001980731776031e-01,2.659833340692449241e-02,-6.695062295106656014e-02,2.057571029333895296e-01,5.047864869763446505e-01,-5.705676120593378836e-02,2.226849241250931366e-01,3.312021087032879924e-02,3.814279583273594287e-01,3.323372967124372246e-01,-7.237335042469214552e-02,3.450461572240340336e-01,4.232639141089638568e-01,-4.917039669133281277e-01,1.336440170943022365e-01,1.175526135766331998e-01,1.702702944344794411e-01,7.543105370559116674e-01,-1.090297625125832698e-01,1.339297499741940178e-01,5.049073006572331046e-01,-3.053213110624785828e-02,2.075802694623221090e-01,2.085201209144601775e-01,2.418497199704395528e-01,2.775487592139052606e-01,1.491262734206655061e-01,1.200562759107990929e-01,2.676752213783948897e-01,-8.474292403894204129e-02,1.816990387854544586e-01,2.455786196562008139e-01,-6.448861833905115970e-02,3.745157923112019671e-01,3.392381016751507272e-01,3.239339960886800096e-02,4.422917569405509508e-01,7.051075307560582262e-02,2.374735828931242299e-01,1.652769047814873354e-02,4.513669800617389205e-01,8.693391067125003091e-02,8.037747551016577452e-02,3.458216155322701435e-01,1.998688320615928105e-01,2.399263737615703052e-01,1.021229808149333035e-01,3.428657541411053722e-01,2.561062589911748399e-01,3.498951889403089099e-01,5.036420184260350652e-01,9.300547940260596447e-02,3.003141155412175634e-01,-3.487185319135059913e-01,5.229887581078703773e-01,4.968482918171967383e-02,1.814474105171883511e-01,5.332776238476005792e-02,1.386305213277216897e-01,1.556427197375617744e-01,-7.328219040687006247e-02,2.533810362053335805e-02,4.552406399724176489e-01,3.863737325041614046e-01,7.357882891711020612e-02,3.245830143051036676e-01,1.426083886953721791e-01,2.559994780654731295e-01,1.152361258373766767e-01,-1.732559360631902023e-01,1.363235080509099528e-01,3.005176697853036982e-01,2.163788745507734257e-01,3.300744213376898273e-01,1.333755612444665617e-01,3.098632045378205691e-01,2.819935635694060805e-01,-9.485907311142400059e-03,-3.692498178296838018e-02,-1.998062374338313574e-01,5.339565501747386422e-01,3.259907832837040109e-01,1.975252006083032530e-01,1.730398120289034503e-01,1.918900386049478546e-01,-6.972875511423368144e-02,4.794145239024129590e-01,2.372798060231118555e-01,4.610764148750385871e-01,8.075447082032408130e-03,1.182474464179075341e-01,-7.526142968324063542e-02,2.376643410754312180e-01,1.199826865094833217e-01,4.269506885133137475e-01,-9.474941184567850505e-02,-1.259005412369050281e-01,1.832631318049548763e-01,1.981830749060426722e-01,-1.227601023110183459e-01,4.120185118582891382e-01,-2.414410165465778191e-01,4.206437186192585331e-02,2.006229617289623235e-01,-1.732196829988438824e-02,1.238234127972551689e-02,-1.834604551074434375e-01,3.240282094578603722e-01,4.596085688680907055e-01,8.382794640008096876e-02,1.692701075019346357e-01,-1.398653909243711968e-01,-2.056021535998471261e-01,3.268120782267444069e-01,1.799126438698477881e-01,2.359886921566835827e-01,2.699055036461298421e-02,2.994731503506843917e-01,1.715266410722921797e-01,6.133723489246999810e-02,-1.509423625094952481e-01,-3.353036558409364654e-01,2.768381463501300987e-01,-1.387549791713302283e-01,-1.431119641884984472e-01,1.224882821678877215e-01,2.077011993179970484e-01,1.485055181738684504e-01,9.307665017511537742e-02,-3.639063731785380229e-02,2.398913829093422545e-01,-8.512255087909141593e-02,8.968925721393371242e-03,-1.336233858090428994e-01,-1.932049566320115028e-02,-2.898386319471348699e-02,3.476720565174873465e-03,1.549578053700424729e-01,3.476088161970141699e-01,-2.539562099075186596e-01,3.642478121811251190e-01,-1.259762946817337970e-01,3.798860016370403936e-01,-5.417195674867392868e-02,2.643048489114117883e-02,-3.960655960873647047e-02,-2.064909249266015379e-01,2.329204939352873260e-01,-2.316255452532548498e-01,-1.049010964984364302e-01,-3.908789920796675310e-01,8.337427034507927104e-02,-6.517810814647815310e-01,-3.990999166324192826e-01,-3.061853993016620534e-01,-5.805664923498398550e-02,-2.434613121953380088e-01,-4.798547847551124512e-01,-4.284908279468796488e-01,-1.598383146079970507e-01,-1.723462211568763947e-01,-1.327851272541908101e-01,-2.835055133593902266e-01,-4.487244161270875220e-01,-3.881165676250096785e-01,-2.820299719696847673e-01,-2.398350263698284801e-01,1.292595015105798550e-01,-1.612539738982186888e-01,-1.595913774607335966e-01,-4.515826726207711195e-01,-4.383731362883072635e-01,-4.669876120707684986e-01,-3.591669615677606786e-01,-3.174429717395461648e-01,-6.403521481482185029e-01,-5.971032980327578565e-01,-4.755058992320334577e-01,-6.084945759895231676e-01,-3.089568040582804098e-01,-7.377192294842301878e-01,-5.595951779107890545e-01,-5.040900037535386291e-01,-5.902129361014403219e-01,-3.659693801306437289e-01,-5.180769814798998896e-01,-9.936156662421995467e-01,-3.469927241177718225e-01,-4.252246703266767680e-01,-8.647866284447701668e-01,-3.566217302849730153e-01,-3.641547537834028958e-01,-5.796522563357140445e-01,-6.205753225314739607e-01,-4.192895779563858838e-01,-4.775053377941915200e-01,-4.427718427550656477e-01,-6.946712586125594058e-01,-4.421565781903212256e-01,-2.256412116033407744e-01,-2.866464730867786526e-01,-7.342538920787305967e-01,-4.925311187325269180e-01,-1.482081585274108992e-01,-2.793529898940165235e-01,-2.099127849186305794e-01,-4.805122602559940281e-01,9.481806247838230062e-02,-2.340872941920514594e-01,3.395981447513078400e-01,-1.134566186771715363e-01,3.366608725596653140e-01,6.279029550257267944e-01,5.935372195904852211e-01,2.049488284454201725e-01,-1.136098271638549956e-01
-7.646123071471886412e-01,-3.034562345828683561e-01,-2.586383133151689551e-01,-3.832553871223607356e-01,-3.167730025016750606e-01,-2.342571361676870634e-01,-3.353677137163475486e-01,-4.927396317708042095e-01,-4.170212701623413620e-01,-9.860596616385993579e-03,9.363563021581356588e-03,3.063624048271078038e-01,6.313234487965717345e-02,1.476689845255219347e-01,2.095234465217417630e-01,6.051487209632570863e-02,2.379169145853554934e-01,-4.277001934296412178e-01,8.908595033291519250e-02,-4.138577435263109949e-01,-2.973376242000425052e-02,1.995355658239151286e-01,-3.122289088658807693e-02,-4.825146178412403203e-02,8.189029153443939668e-01,-6.009350530455010754e-03,-1.009839815132529267e-01,2.853151989889175441e-02,-2.480568365337523784e-01,4.560399078930016392e-01,-6.175026701927714690e-02,1.462348537365127654e-01,2.721055004068931304e-01,9.127682467542925782e-01,1.330527849166834864e-01,-1.225679225262777117e-01,1.479477967340040168e-01,4.763174206932710431e-01,-3.927019129052179425e-01,3.091782062887573485e-02,-2.159706818388303640e-01,4.920178416611133421e-01,-6.471079716283699435e-02,5.560366411553543387e-01,1.491494704994754672e-01,1.802941566687832065e-01,-2.091261017976834835e-01,2.061960112948268420e-01,-3.299170480377984771e-01,-6.148938213479804987e-02,2.127121387076201520e-01,-9.609092844467809202e-02,3.490861287594552720e-01,-2.969341893676609445e-02,2.522562300714164055e-02,1.197490308622891075e-01,3.053011795990845378e-01,1.760781507609549823e-01,6.958242292908653481e-02,2.415698653361722861e-02,-1.717093999222413236e-01,3.506176809609696243e-01,-5.521476129210282913e-02,6.196824606424848614e-02,-1.865581748316629679e-02,1.857461311899616663e-01,-1.938088631358522440e-01,2.512884479792662495e-02,4.644897341313345973e-01,3.654173128958889127e-01,-2.648939861896866879e-02,4.787523585129371817e-02,2.278644082487800981e-01,-1.930934073343356927e-01,-1.133198922805624120e-01,-1.017369891904857798e-01,-4.107753093321108162e-01,-1.695848681901230837e-01,1.136630360061791495e-01,-1.539802679056465617e-01,-2.492455051499021246e-01,2.384477296515713843e-02,-8.617096737861956735e-02,1.048198714905113071e-02,6.417897633850028205e-02,-2.639014813686890171e-01,-4.570671402471846445e-01,-2.535661581900601202e-01,-5.412124899261689936e-01,-2.758085142149792612e-01,-3.404587401078461584e-01,8.768425508158869675e-02,-4.522271560250413769e-01,-2.366431402862803346e-01,-1.379546395807590420e-01,-2.163964949752029132e-01,2.597709480813700442e-02,-3.513968803821383990e-01,9.852267217505476793e-03,-4.545161443185580241e-01,3.899433920669324038e-01,-2.173811187435312209e-01,-6.623397604575755049e-02,1.297766697379534526e-02,-5.934635178941457742e-03,-1.540617078132955065e-01,-2.473423499231134637e-01,-1.576833414618090123e-01,2.273960768692698808e-01,-1.061262062557634944e-01,-6.468990842301884647e-02,-1.267430383936330451e-01,9.330147464783362932e-02,-2.031530825292488518e-01,-2.571358240484201696e-01,-2.159230692624481418e-01,2.129698296645880506e-01,-2.125031198177722014e-01,3.267288886312783025e-02,-3.420937210575761833e-01,1.844107640455312502e-01,2.013554879503563211e-01,-1.376441109960765130e-01,2.089625426551118548e-01,-3.073305902609365647e-01,6.427723812218530397e-02,7.861084699106855866e-02,-3.691773619575933890e-02,2.427777656483920132e-01,1.303472009205742799e-01,-9.274502188160900495e-02,-2.278677495273526421e-01,-4.321355108423660663e-01,4.065380344985281003e-02,1.939786008171625817e-02,1.337380089642559444e-01,-1.232523737145319181e-01,3.532797604618893583e-01,3.081187712288745439e-01,7.103920955845366425e-01,2.569400964899485329e-01,1.206572785748075832e-01,1.749873614055346416e-01,5.501655723161080758e-02,1.467525628065749765e-01,-7.790664661787913281e-02,-2.076348743582505652e-01,-2.647843962561477471e-01,-1.701560360973800728e-02,5.896439430103151552e-02,-4.101858253488667727e-01,-1.370460282624168802e-01,-2.335216455087424647e-01,-4.263314109911761074e-01,-1.113943273722050806e-02,-7.284354680779655533e-01,-1.873467974438194628e-01,-2.691819703850052981e-01,-7.893585160111158544e-03,-1.445484299278827767e-01,1.687751295665682882e-01,1.950787302727406344e-02,5.007996055980987876e-02,-1.283360744999438863e-01,-9.203228866556174836e-03,4.246683700064136230e-02,4.209742450045977739e-03,-1.170536630693920360e-01,-8.263438807587553114e-02,-2.107728123218469488e-02,9.524161251975686582e-03,-3.053987027057909476e-01,-5.839352023450581665e-03,-1.308917364526586691e-01,7.341485700752246185e-03,-1.356228614731165572e-01,-2.452454133258918645e-01,-1.017816241059887362e-02,-1.675032614443749679e-01,-6.309583299602190831e-02,2.879822035794002075e-02,-1.372078926655767861e-01,-1.848756070134606466e-01,-1.132727947377695256e-02,-2.559646833101333341e-01,-3.281940525031264988e-01,-2.058098827918027340e-01,-2.161379517616310308e-01,7.392739505011343415e-02,-2.038914445181779778e-01,-1.597183444921681794e-01,-6.032408298544207348e-01,-4.487356248904444955e-01,-2.140990957241330761e-01,-1.868127010168465774e-01,-3.073014113085980464e-02,7.884795682027130950e-03,-1.309884670313059829e-01,-4.299855851235444976e-02,-9.344656614781533810e-02,-1.388031897361248213e-01,2.819415977712180083e-02,-4.819319489715918614e-01,-2.894789095339177498e-01,-1.814786236740745518e-01,-3.152489279630998897e-02,-2.328947141649148969e-02,-3.784866195036885594e-01,-3.301404413808908256e-01,-6.591383662594600679e-02,-6.151372735417088844e-01,-1.645184680891787765e-01,9.068984499924045289e-03,-6.728892520018592283e-02,-9.790014518601077020e-02,-3.350396305038269018e-01,-3.609204849534143889e-01,-2.886149776097519104e-01,4.807556867573578238e-03,-4.732581358829198726e-01,2.329337599021045341e-03,-5.578644677875655988e-01,6.853040059256362837e-02,2.378236642206965068e-01,-2.665249660356558414e-01,-2.036606020117374682e-01,1.983851775940400075e-01,-1.387876156271146758e-02,1.297334259842579662e-01,-3.355832172052167772e-01,-7.958033625570798408e-02,3.100316234070805282e-02,2.741310605932972266e-01,-8.416746051083787150e-02,-2.491004192040411902e-01,2.028793903710055524e-01,5.953321221167543614e-02,-2.664487925887504827e-01,-3.290348782891669988e-01,-2.768752434731450718e-01,1.042711839986165817e-01,-2.141113283850411830e-01,-1.327127317553978246e-02,7.892174347854043204e-02,1.645533986808797033e-01,1.485409132592715453e-01,2.031336471918849806e-01,4.392982578770023849e-01,4.383133386831533085e-01,-1.276477727782556748e-01,3.224261841785302507e-01,2.671343459513648710e-01,1.565945263020162292e-01,1.208162262788920333e-01,1.203196665136066629e-01,-1.777481482277445957e-01,-3.068660495348690120e-01,5.375973409374273232e-02,-1.151457566914035890e-01,-1.450282010203953753e-01,-4.742814018664781583e-02,-2.051758967825435265e-01,-1.056683155499707344e-01,-1.629165128780329930e-01,4.051790544635356928e-01,-1.375129953813393757e-01,7.233840841826801038e-02,1.884597891308821271e-01,2.926570495412747150e-02,2.591743783264778833e-01,2.447347188121212214e-01,6.507966340097157687e-01,4.098700904183747440e-01,2.724609498663037588e-01,2.233289755004742583e-01,3.674792244995666590e-01,7.475301717094757770e-01,3.878930607897906890e-01,8.659287566293089045e-02,1.827401960985242935e-01,9.375818610437604284e-02,7.490253052351794616e-02,2.042205512783468180e-01,1.372573825024987933e-02,-2.147557595986817336e-01,-2.687153526888926836e-01,-2.171578380642710249e-01,-3.240997961786846737e-01,-2.765205505069165404e-01,-4.323454346624521633e-02,-2.966430379462923206e-01,1.054577042944061932e-01,2.510438563785668056e-02,-2.511184938667358757e-02,8.056555717240437842e-02,1.822511601774796097e-01,1.584110326738552843e-01,1.367306883051247202e-01,1.817502410057461604e-01,3.248598973068349549e-01,-2.992306924268718551e-03,1.696059107264926147e-01,2.921123761344916747e-02,1.619555920829865159e-01,-2.150360267109701629e-01,-3.960356085103180490e-01,-1.187066972188711933e+00,-1.744697003930538060e+00
-7.643039744584066986e-01,-2.771153074289714469e-01,-3.224686409082311300e-01,-4.488561786761604000e-01,-1.679959388394230424e-01,-3.574360803576386858e-01,-2.082609048483053671e-01,-1.951851388840993018e-01,-1.743896553640426894e-01,-2.214151874603348114e-01,-3.976248480608908231e-01,6.098576300548682605e-01,7.928878845390482932e-02,7.024938218967761161e-01,3.850638033610150335e-01,5.698153639673858573e-01,-7.815262874157909989e-01,1.767056983286338923e-01,7.226873094024281741e-02,-2.004176468399615774e-01,-1.686831753532959388e-02,-3.617290986154442223e-01,-8.308819754437744842e-02,-2.830788005910453084e-02,4.901617978844681200e-01,-5.959812393158817612e-01,-8.858308918868500192e-02,-4.605511068908968442e-01,-7.252730190310541225e-01,-2.738793790513229798e-01,-2.817143942411800550e-01,-7.143661463073251727e-02,-3.180653941514491323e-01,-1.839844857365695863e-01,-1.062623955107439427e-01,-2.021652539033267637e-01,-3.490274052081533407e-01,-1.332120974077438402e-01,-5.683635716616791678e-01,-1.957296470612517603e-01,-4.342156696392591719e-01,-1.773351777823274078e-01,-1.838595169405381757e-01,-1.056807615510258064e-01,-3.201595315861690549e-01,1.675353996005364277e-01,-3.023482588074185018e-01,-6.023301113850920707e-01,-4.692686857538762024e-01,-3.391929180161525337e-01,-3.954016086506024763e-01,-2.583498074265488387e-01,-1.669496772097656123e-01,-5.001436246384701745e-01,-2.101369710788996703e-01,-3.060295195379988953e-01,-3.033967920325886594e-02,1.790703251096345539e-01,-1.673892225404886164e-02,-3.344585413442968114e-01,-4.464401655566216931e-01,5.885421739763738169e-03,-1.266666883750390549e-01,-2.304301821703554354e-01,2.297721266889779512e-01,-4.679350370901427802e-01,-2.036485727695362333e-02,-1.419182916713639664e-01,2.362904158070736060e-01,-3.009098144511873074e-01,-2.448021410428746214e-01,-9.715139807163855612e-02,-9.818325875417621695e-02,-2.864212939651095136e-01,-3.458425461958761216e-01,-2.934844523113099846e-01,-6.091745685397441656e-01,-7.750887065310103907e-02,-2.962401700729990206e-01,-3.386133139989006557e-01,-5.079347872693980026e-01,-5.334434798978371361e-01,-3.043139100073050662e-01,-2.115605598704392853e-01,-8.558864738250938908e-03,-7.396300355270423073e-03,-2.529041061147680458e-01,-3.196200057640260495e-01,-3.996112994999251877e-01,-1.753276900935982763e-01,-2.099123509475095684e-01,9.282246618831873838e-03,-3.632463506093535077e-01,-1.761606816533925479e-01,-3.758278133967998813e-01,-4.338655361031575897e-01,2.473101411879130573e-02,-1.041458961602222399e-01,-1.603812790562812729e-01,-3.720988526316120759e-01,4.623493601285248999e-01,-5.059546396620834274e-01,4.318627320137091719e-01,-3.124720392632111543e-01,-9.920984656993245276e-02,-1.176555362013845668e-01,7.447390135230426422e-02,-2.311408671553364935e-01,2.073296437207818033e-01,2.177408021523127291e-01,-1.382210964765732686e-01,1.266249525719864433e-01,-3.969391425865933382e-02,-1.216071068612658568e-01,-3.618602721638241593e-01,-2.574627567555225482e-01,1.076365107143552602e-01,-9.900023154245166102e-02,-4.445645650590646647e-01,-3.676271726437414511e-01,-3.130978868910953561e-01,7.046850686179343404e-01,-4.644447138597858071e-01,-3.104833246949005865e-01,-2.485116830638970375e-01,3.566414681219928218e-01,3.045117661360851602e-01,-3.797935158020604440e-01,3.492729661188050949e-01,2.465753472532774826e-01,-2.505197059530358539e-01,-4.068081230491218947e-01,-1.827151729599394980e-01,1.358804100696802686e-01,-2.721516625983197435e-01,2.630911717886958434e-01,-6.388333821891396536e-01,-2.291307635326560455e-01,2.901914028351412211e-01,6.132118169813333824e-02,2.519636515844977387e-01,-6.614923491670200717e-02,1.095993445224957147e-01,-1.847899316878461873e-01,2.976922234883674356e-01,-1.048781237916820708e-01,1.265177072706510364e-01,4.759214069305995470e-02,-4.573917215741361147e-02,-1.021197710808726816e-01,-1.108182182463718357e-01,4.504975750086673281e-01,6.567582393199064214e-03,-2.979580326784474487e-01,4.975693562191085273e-01,2.992745510821850918e-01,3.553228024965008336e-01,-2.040915709142967771e-01,1.636771854432297613e-01,-2.263783253603038337e-01,7.331025222324237811e-01,-3.922087963012171885e-01,5.407375988998287530e-01,2.933008352196873059e-01,-8.141764085784689020e-02,6.464845887360856080e-01,-3.104447219425208737e-01,2.234662383289194587e-01,1.144829546660057762e-01,8.939203861452009459e-02,2.256444075849815475e-02,1.261386227269575000e-01,1.920418112580546399e-01,2.786317201171264329e-02,-2.056712236170638308e-01,2.563241167160800749e-01,5.611470170134561508e-01,-8.453568909002111276e-02,3.448799187036222236e-01,-2.716142963746239966e-02,9.505162411989548366e-02,-3.348207715835355147e-03,1.002185222822651323e+00,3.465517878173932087e-01,2.238380649447581916e-01,2.472626696823213843e-01,4.515369407644513333e-01,3.372437760114643246e-01,1.491811954889172009e-01,2.479361747493569190e-01,8.501887751636273693e-03,-3.222413425356245725e-02,-2.337859879503080551e-01,2.176917707523099432e-01,6.822154426889213141e-01,-9.447734319143365200e-02,1.685803202243901233e-01,-7.945676524500670801e-03,9.155269270640166435e-02,-2.104781221835014260e-01,2.489843789251736383e-01,1.094239343730226896e-02,1.750335856450007943e-01,3.168853981669404463e-01,1.214964038199665974e-01,2.464014488281939530e-01,7.063000531956301620e-01,1.256055312813861013e-01,6.522186594445532615e-01,-2.796176652785696826e-01,8.062352234340320889e-01,1.867771849042801358e-01,3.988321307636434332e-01,-5.044301091401328513e-03,-5.641122857742343344e-01,3.646902701977688954e-02,2.058371603102194386e-02,6.920650521142888145e-01,1.012196833822309294e+00,-2.332004657675551262e-01,8.542411987191757261e-02,-1.571499232863012019e-01,-2.794324404524553551e-01,1.962375214088799003e-01,1.012076326822986649e+00,-7.936202690638706481e-02,-2.858607587549210627e-01,-1.423638276917972290e-01,7.796771832888267362e-01,7.715013461045694410e-01,5.463283783050855158e-01,4.846304817235432827e-01,-9.260984680085113108e-02,2.779011552876536340e-01,-2.169471852899912678e-01,1.851537678462037428e-01,4.887168955182682462e-01,1.219133184165900607e-01,6.143632430806567069e-01,-1.618370955580002157e-01,1.657810276307721681e-02,1.166067372848398342e-01,4.312933814711351621e-01,1.827235244699863259e-01,1.900523998181941621e-01,-2.617180266625542158e-03,6.017621540771568925e-03,8.436250583319097884e-02,6.852878821066024084e-01,-5.355103866223688558e-02,-4.450733159773488379e-01,3.809936885315177713e-01,5.699873801683676966e-01,1.891944833356503930e-01,2.554265644419917436e-01,-1.118041370080759406e-01,1.878046759934861032e-01,-2.542840640061606594e-01,8.204390286170322455e-02,3.814974808364977599e-01,-6.164246675954026394e-02,-1.214433014997337579e-01,-2.037205460360884401e-01,1.439138829227430416e-01,-6.301583208953581705e-01,1.754620376730549935e+00,2.016766609334650906e-01,7.752261866031662230e-02,-1.839810785432646062e-02,2.306533557534282131e-02,3.190326533052748048e-01,3.141209097585844212e-01,2.555305437984369821e-01,4.380394006221211001e-02,-8.070871104504750981e-02,-2.427290631551068112e-01,-3.913763898404706973e-04,1.867176041846972667e-01,2.135337427301771396e-01,5.712226380622241750e-01,7.592831510974069609e-01,-2.094925612780280666e-01,7.031151069583039259e-01,7.942056852800900568e-01,1.208371517601409123e-01,5.928120327696972947e-01,3.362411839291127857e-01,5.380970419078479061e-01,-3.064821423070167583e-01,1.524646342095463229e-02,-1.175490341507428455e-01,1.276879003440356264e-01,-1.206702370346144221e-01,-2.307316480082615556e-02,-1.450344431272424239e-01,-1.933174144921426252e-01,-3.048238502539681871e-01,-1.098250828297233084e-01,2.724941140801336870e-01,3.414074289247624461e-01,2.494267500396154247e-01,9.907493072501990516e-01,3.719365937593419602e-01,4.809578501096312686e-01,4.520309190218130962e-02,-1.657789051268767078e-01,-1.126133762947132633e+00,-1.971600980331575270e+00
1.885315059718327246e+00,-2.993001390118034746e-02,6.797860686940954134e-01,5.617590660935278812e-01,2.594075673488595024e-01,3.106161969246561405e-01,2.542010429332614008e-01,-1.818777927818044649e-01,-8.355110825596319402e-02,8.821272351709565085e-02,1.439712440371973372e-02,3.861088760871423387e-01,-4.421568404207059516e-02,3.153118552080172998e-01,1.703056277677320041e-01,1.646817744793364346e-01,5.127364872664261775e-01,1.437275123476464134e-01,3.844456908058346278e-01,3.597701752157151378e-01,4.855738996240561156e-01,4.157352703262278126e-01,5.154919824461569045e-01,1.667151726568288569e-02,4.194598539448295832e-02,4.451072357562213533e-01,1.444880465813309089e-01,-1.749521324616522822e-01,2.665488411594833448e-02,1.350344970147806800e-01,4.122416187795503728e-02,2.574527351610971793e-01,2.437151979333924967e-02,1.186465342337945233e-01,5.846501629305837083e-02,2.361519104216120157e-01,2.972176921107367864e-01,1.613245446148906526e-01,3.181756557099766902e-01,1.659315015466953924e-01,2.016734961452343877e-01,1.754697003916583509e-01,6.329417145487878926e-01,-1.906434661884857107e-01,2.014442778840628834e-01,5.935286504560430831e-01,3.494662430004650822e-01,3.246500257220945040e-01,-7.038669743455654160e-02,3.821940637417920450e-01,4.679236174016299099e-02,3.699330079927805603e-01,9.515417662065071835e-02,3.996642377993224193e-01,3.272960382338149787e-01,2.454300713437236880e-01,3.292288461897129315e-01,2.199403420326355163e-01,1.609217136033358753e-01,3.320594378783573442e-01,1.889834113261908421e-01,-1.857995836184192229e-01,2.829741217849830459e-01,-2.718057317859045099e-02,-1.849090258515273533e-01,1.873872900937530173e-01,4.583275466284582045e-01,5.117497402845352372e-01,6.966301720685888488e-02,2.875999516010718793e-01,3.858604782029261271e-01,3.322885861341086655e-01,-2.773353013039426065e-02,3.703577965964801599e-01,1.529066756627596446e-01,3.410426786438398583e-01,3.521915858270424637e-01,-7.036604940496980765e-03,3.083395272335464829e-02,3.075140579914744654e-01,-1.559968657427553973e-01,-4.426042225442534950e-02,5.572977809860993337e-02,3.412455224795894471e-01,3.065504243309117791e-02,-2.816682713601391108e-01,-1.224596586522727973e-02,-3.824616375631659931e-02,2.131561710627128681e-01,1.098020279291248708e-02,-1.623317285299722412e-01,1.135080854016035090e-01,1.152008716862313320e-01,1.503077819170619833e-01,-3.457700780043913569e-01,3.328932977914093178e-02,2.158114911235739786e-01,1.240278873036891744e-01,-1.424110498364880295e-01,-3.601271044241091124e-01,-6.281209062025653322e-01,-2.222308620047856176e-01,-9.148140845601371307e-02,-5.272415441524505031e-01,-4.753319598047239802e-01,-3.311786859999265031e-01,-3.290153823132603295e-01,-1.224601650401046099e-01,-5.363414940286189703e-01,-6.233890824091286031e-01,-2.306538829345945174e-01,2.014244426086057027e-01,-3.022234376333787220e-01,-4.803834019457004501e-01,-4.904931594363410863e-01,-5.460250226025824272e-02,-8.859029329468300906e-01,-1.494215822923021242e-01,-2.763342181246706830e-01,-2.324089202934500470e-03,-2.162361836712241858e-01,-6.542869357646011741e-01,2.024836498298173901e-02,7.622536301991475471e-02,1.302248420391089734e-01,-1.467798989587304481e-01,-9.857152640616437256e-02,-3.464324462703406993e-01,-4.914241998154972313e-01,-6.427357241987311509e-01,-1.039003156162398578e-01,-5.954628180494565132e-02,-2.383579603227138632e-01,-8.527565127891647331e-04,-1.431663053180382283e-01,-2.038196535300668966e-01,1.839787794303412716e-01,-6.359486921144863469e-02,-1.899649280949546881e-01,-8.520992357274564943e-01,-1.479197885274682878e-02,-2.592155674033620461e-01,-2.121065452448026856e-01,-2.867213105769112480e-01,-3.368178451681578811e-01,-2.334116900590135490e-01,-1.054179245123541830e-02,1.658669123612435681e-02,-6.376009083249619680e-01,7.757446327695078844e-03,3.331086911029153275e-02,-1.529720718582053829e-01,1.186304978910067420e-01,2.711964140140444429e-02,-1.403374386635486415e-02,9.806888729722805509e-02,6.130389140774615553e-02,-2.306921882141188540e-01,-2.066903744633630802e-01,-2.950613173184013505e-02,-7.278052762616515903e-01,-6.212090003059968918e-02,-8.329315256837256654e-02,7.904231322220635347e-02,-1.779952969228285331e-01,1.923968016225263145e-01,-7.192774741235330449e-02,-1.955722051790718952e-01,2.686884815360952028e-01,-5.407244715085020026e-01,1.043997773448094961e-02,-5.695991697341313831e-01,-2.111464193701605707e-01,-3.644786317236683310e-02,4.743190492971116057e-01,-2.948144045848081207e-01,2.972169635391636588e-01,-1.350095868638531427e-01,2.149373093327058004e-01,-3.580448439121933918e-02,-1.303340781567261242e-01,6.164239478682057710e-02,-2.089569973724306473e-01,-1.584435982430863477e-01,3.897622169082519128e-01,-3.666769284900874837e-01,-5.561357401406105128e-01,1.004820753314158988e-01,-2.647488487367733456e-01,-1.313251614092909858e-01,-1.686520327931647842e-02,1.242045248940984031e-01,-2.033854282307652819e-02,-5.751871383084505851e-02,9.902469054857174213e-02,5.690936674225566261e-02,2.076773486999502760e-01,-1.682541128917162121e-01,-2.120555271034755274e-01,3.810376740486352831e-02,8.134772144392312526e-03,-1.868585370363864406e-01,-3.077663938538256483e-01,-1.456451532831297413e-01,1.124026803284304821e-01,1.303948860066319326e-01,-2.297262055203517228e-01,1.580547360478796737e-01,-1.489333279272523070e-01,1.940773157738085244e-02,-1.972458709868346940e-02,-1.107214110394895146e-01,-1.075114389710496443e-01,-1.978647043424451024e-01,2.083130046616183673e-01,1.016388442846546669e-01,-3.940818434241302216e-03,3.534970821116884543e-01,-1.328577818291787616e-01,1.380008465828809483e-01,-2.294981545618327012e-01,3.252550600315672891e-01,1.083905233686427994e-01,-1.779787529910327459e-02,6.265645352837562188e-02,-2.477217260147822064e-01,-4.748735134960387766e-02,1.354727421071620364e-01,-7.522598537305439370e-01,-1.938505898586735943e-01,2.251589807142930638e-02,-5.486872408138743912e-02,-3.195999149991910482e-01,4.163482258391560387e-01,-1.045170317808090735e-02,2.057679718823302584e-01,-2.167447498303843312e-01,-2.288273287470547757e-02,-1.796536510192649205e-02,8.984584412541660181e-02,-2.907903578648700638e-01,-2.057211237200412546e-01,-1.615679588587789484e-01,5.332749658744071614e-02,-1.434904475959734027e-01,-3.603943770991770990e-01,-5.701842828634057225e-01,-5.350236006745157091e-01,-4.079906218503589477e-01,-8.522659037470942112e-02,-1.049516960859272624e-01,-1.139760618670321579e-01,-2.338438405670031084e-01,-2.370990329984063727e-01,-1.980658127311195893e-01,-4.760576125449548779e-01,-2.285022080615979889e-01,-4.035478257472523422e-01,-4.470788226739749738e-01,-7.400387143216725395e-03,-5.541655620979144548e-01,2.166032664589348511e-02,2.313919521612261831e-01,-5.944574599870530718e-02,-3.529574781723270882e-01,-2.424311139115248315e-01,-2.865215225836917901e-01,-6.946385281630502728e-01,-5.769466980081640051e-01,-6.580524456600622685e-01,-8.226219081135186517e-01,-1.082877343219291078e+00,-7.660770650385976266e-01,-5.726488558409951191e-01,-9.823613779245665700e-01,-6.300214663480123711e-01,-8.651209483026139901e-01,-7.678867383083273213e-01,-6.627506609383466696e-01,-7.275560180133834320e-01,-6.072080743303825967e-01,-3.729977398370410979e-01,-3.401394423837457159e-01,-6.034145940491997262e-01,-4.494198195059956880e-01,-1.460680829785598323e-01,1.716553863824824000e-01,9.910025114897895449e-02,-3.544870781602094678e-01,-3.534350062294788763e-01,-2.772513179723050114e-01,-4.042087419072649956e-02,-1.485167517571311380e-01,-2.311709866473626029e-01,-2.690441992304949403e-01,-2.138357544754058981e-01,-2.302339052811713249e-01,-1.295487751554114664e-01,1.125974432238010109e-01,-1.423386884798376328e-01,-2.796756877322576496e-01,1.414551581529535085e-01,-2.972775975963921069e-01,-3.691002059994528128e-01,-2.302464273147511176e-01,-6.523527089281674352e-01,-7.837352890960959106e-01,-8.926102770669498421e-01
-1.963642499542004316e+00,1.966087996746793687e-01,-2.619666393490934775e-01,-7.079409044691824249e-02,-2.530051320601895970e-01,1.216704096675101238e-01,2.192457248273911932e-02,2.982122278046860434e-02,-1.404084360262228270e-01,-2.544431251013498652e-01,-1.931256876535979161e-02,-2.933052374151832731e-01,-2.704875007223134231e-01,-1.212512547300458460e-01,-1.664836584528676666e-01,-8.090077206357836059e-02,1.257065438288406944e-01,2.729304439079118239e-01,3.094419504108635310e-01,1.297225682479901665e-01,1.710467151527662599e-01,-2.506591624666683615e-01,-6.863356843587717360e-02,3.996385632190360138e-01,2.851495879598470173e-01,4.173323508306175378e-01,1.183609890568602802e-01,1.401165127431409085e-01,3.277999019578323181e-01,1.421923039099952102e-01,2.290282902984711599e-01,4.656431473515340591e-01,1.492322710988264467e-01,-1.153678094322298786e-01,1.096758272190977504e-02,-1.007702938102290890e-02,1.018714758609218507e-01,2.532578161735793421e-01,-5.383938439994469249e-02,3.107907525262038062e-01,1.262262071246249284e-01,9.612340323421593447e-02,-2.689077127515612873e-03,2.224411433688114059e-01,5.255092522078389644e-02,-1.118132825378012341e-01,-6.237596659509960645e-02,-2.642842726367428674e-01,1.823819363099885849e-01,5.253053203895936829e-02,2.610623294002202832e-01,4.532601901450321324e-02,-4.388499127068474365e-02,9.992243195495324748e-02,-9.659642333605160391e-02,8.251337108620422633e-02,1.861064715163755420e-02,6.201667848111497988e-02,-1.871023502178427445e-02,-9.148338980028153378e-02,1.546760794002793307e-03,5.729178197356873947e-02,1.299518862679516773e-01,-5.369574790553521132e-02,-1.005912594995688747e-01,3.768879289484061007e-02,1.601025057973040344e-01,3.376048612965334289e-02,4.163264279613024255e-02,-8.354854360642026412e-02,-8.755007102392284302e-02,-1.779973080622857529e-01,-1.009576404479292783e-01,1.711497717732489710e-01,-4.525423165826786276e-02,5.412621739338809718e-02,2.627152438283995028e-01,5.896757126157171208e-02,3.040324315551661827e-01,-7.064530299796509261e-02,5.165566662831963529e-02,1.307558524582339565e-01,1.597019075080472195e-01,2.395697815963342137e-01,9.561773360602254801e-02,1.603203176865936885e-01,1.249968101886033273e-01,-1.658260965220303418e-01,1.407570117267907817e-01,8.559309604862264109e-02,2.952893883147377548e-03,-2.015588806743716932e-01,1.223811932949244452e-01,-7.561293436061308770e-02,2.869811125993398937e-01,4.625361665587248705e-01,2.108763078489663823e-01,1.642598153314815124e-01,1.266408561988840442e-01,7.664001504977702162e-02,8.346584238059728822e-02,-1.277391142675407265e-01,2.084942945353659149e-01,1.602967598328745302e-01,2.986688972090473237e-01,1.453663707758173218e-01,1.824206258717897544e-01,9.147549036684935950e-03,2.005801871078277399e-01,3.681935123032036294e-01,2.741202985819754523e-01,2.753494103890821720e-01,-1.030668791755638553e-01,-2.598187982567532611e-02,5.205507062207476165e-02,2.748623114283412286e-02,1.176065452505294963e-02,3.051226226880641643e-02,2.834311218680024558e-01,1.849903835435508515e-01,2.405731465150292570e-01,1.549265282045017844e-01,2.457307089003376854e-01,2.023700674994781123e-01,4.240286656695470974e-02,6.172161726223485134e-02,-5.367632195887832303e-02,2.887554261166953573e-01,-1.132869692743338624e-01,6.569297879110863603e-02,-1.143580884297036721e-01,2.339929811062063658e-01,2.533054126404307160e-01,-2.847865725183526542e-01,-2.450263135364857126e-01,-7.025741369122438795e-02,1.175487146317591991e-01,7.607637386628533782e-02,-2.232201809209685001e-03,-8.972648739035407606e-02,-6.623875102631521239e-01,-3.285873459447581635e-02,-1.045191135824286022e-01,6.970796725667102178e-01,2.758612015235253900e-02,-6.071965565688412086e-02,4.692418469628724213e-03,4.321725879785872082e-01,1.878083391792472190e-01,-2.045106187763142680e-01,-3.394657979186072594e-01,-2.652985818186519573e-01,-2.631408454614984210e-02,3.978198262212458980e-01,-1.085800606671928903e-01,-7.041101003901908406e-01,-3.543774355187278569e-01,6.812550932547803417e-02,-1.063367784452286247e-01,4.303015645003412971e-03,3.308421539500335656e-02,2.517150060488149502e-02,-4.020407008120223114e-01,-1.633113424461493657e-02,1.396220012095558960e-01,-3.946293774829582879e-01,1.791423135215174656e-01,-1.630540205290036682e-01,-3.155480064398474838e-01,2.372195116703742501e-01,-1.130983436243653412e-01,2.052034327338662575e-02,-4.770190219713503210e-01,1.634719165279183866e-04,1.143819776765608032e-01,2.601309001603961391e-01,-2.726102760853438278e-01,4.693714421892596078e-02,1.315816541080958302e-01,1.094224647319798766e-01,3.098082792652031431e-02,-1.125087239950876561e-01,-7.247387036102409530e-02,-4.324777155488642583e-02,1.380051120492717213e-02,8.774881628973775494e-02,5.631751473058197455e-01,7.215502214989109042e-01,2.881259120508217891e-02,-1.021192702298845262e-01,1.696247516022719726e-02,3.500298178486272449e-01,3.193200967842861893e-01,-1.555978576895727383e-01,-9.346051566337060246e-02,5.886674976930112574e-02,2.693740718107656348e-02,3.131919843639379697e-01,6.294829833283335785e-02,3.473753388572156653e-01,-3.381041084160986143e-01,2.737758449160583307e-01,-3.255762022046017334e-02,5.949646006934848907e-01,4.621026991942439044e-01,8.184096007866768080e-03,7.689699120231091589e-02,-3.243904132961534792e-01,2.533248495215082441e-01,-1.061342543022765622e-01,-1.491409126298990154e-02,2.753326307356272484e-01,4.452540361415457948e-01,3.334534818797888489e-01,-3.924208902705774160e-01,4.533335786779867788e-02,-1.278162412076323806e-01,7.495779318667786795e-01,2.536125924826204692e-01,2.465165046625944212e-01,2.093759334993959206e-02,-5.907354944537268615e-02,2.768938885365292424e-01,-1.525987034291809152e-01,1.891866485308029699e-01,-3.347509886366837328e-01,1.501327190799342341e-02,-2.462637077078723702e-01,-5.344573447855346937e-02,5.410757147924600829e-01,-6.539821813863948285e-02,5.601180213674725739e-01,-1.471923045635729066e-01,-8.791736421276587221e-02,1.519239727228288706e-01,-5.694693352581637474e-02,-2.385671093818916566e-01,-3.483508416679438890e-01,-1.199255320687843129e-01,-1.051591576207712431e-01,5.565955256704156751e-02,-1.821996128889770417e-01,-3.185213351680517002e-01,-1.634474064710658703e-01,-3.353027055188875227e-01,-9.056586752842540888e-02,-2.803023507450626284e-02,-3.209100049239910768e-01,-4.465751781141294452e-02,-3.975217629280266007e-01,-3.345996075255516233e-01,-2.508774338387753308e-02,6.084814028097425970e-02,1.448643365359389423e-02,-2.104102789901473036e-01,-2.917732481677688394e-01,-3.894211607504888262e-02,-3.874369093390076513e-01,-3.034563319305823570e-01,4.485429855091056101e-02,-4.317574534976081901e-02,-3.768324713093192113e-02,-2.123483598778063974e-01,-1.603966866041174888e-01,-2.496045330933149287e-01,-1.207681647735318053e-01,2.268379962530607252e-01,-2.180228207061678941e-02,2.279674085739742118e-01,-5.527691483396263844e-02,-2.550810096577465699e-02,-1.739787060374273775e-01,7.676860415072156441e-02,-9.451108440109623476e-02,-9.569916568268789156e-03,-1.692743281191947946e-01,1.656004044330864344e-01,3.337170424136198799e-01,1.473794707977959806e-01,1.291047606994651271e-02,2.907181807122524164e-01,-6.823596879064011689e-02,3.158284009054286301e-01,5.679029150894753242e-01,3.287868535287685190e-01,5.219078567850872208e-01,8.686779779693047654e-02,4.968859880184411382e-01,2.531796089801897631e-01,3.244648472935650618e-01,2.626216305635838966e-01,1.583427600206496200e-01,2.309790711879182445e-01,1.252027044068950434e-01,2.543029645005903672e-01,-5.495034389784451967e-02,2.418726724892860114e-01,1.032250673930811546e-01,-2.660495507066571452e-01,2.049403520249883648e-01,-8.704603297747302501e-03,2.168674213754311075e-01,-2.109085124679075871e-02,7.152384272742043358e-02,-5.678755999382464198e-02,-2.408549435966545194e-01,-7.262617035804653787e-01,-1.907756438556692524e+00
-3.104868203071905253e+00,-5.418330841204486159e-01,-2.738184125737249119e-01,-4.838262827530335208e-01,9.167232509432698961e-02,2.947794069264211836e-02,4.948777733970044501e-01,4.814331813470905663e-01,1.184283287573514309e+00,3.460356807765593845e-01,7.008456691386359960e-01,-6.493378402887674261e-02,2.311782137837579409e-01,-1.417137165036921331e-01,-2.399188197069043738e-01,-4.690261473409760296e-01,-1.492180223816910178e-01,5.808472597827420668e-03,-6.305020103015376853e-02,2.110729831507800192e-02,-2.320690739212601106e-01,4.476549206830349736e-01,3.152213066959465293e-02,8.192179191566165697e-01,5.677088874682137964e-01,4.042580760485973146e-01,8.176442813356435968e-01,2.055254466816848133e-02,2.972428122098443870e-01,1.215521134882173587e-01,6.089277543711958396e-01,3.221932742397986549e-01,3.043351812164812875e-01,9.454158021874052575e-02,7.976732150500481788e-02,-3.664092367848386517e-02,2.255551567566672910e-01,1.408696015817367808e-01,6.052747635807411708e-01,2.781922288195289306e-01,3.871932908594757916e-01,-8.826399511048854674e-02,2.301315628077938991e-01,-2.597107424562156153e-01,1.439007637561106057e-01,9.513386943898433090e-02,7.348675361185214028e-02,-2.435824706490013480e-01,-1.602309763654198305e-01,-2.131862022914064736e-01,-2.949810652785579967e-01,1.657047143961998259e-01,-1.258761400889248372e-01,9.558992465303288444e-02,-5.219287408448106125e-02,-1.799688591414685609e-02,2.586977391056668671e-05,-2.395402245844066233e-02,-5.073675602596074835e-02,-7.149109634197230168e-02,-1.106585817959536283e-01,-8.529397605931889059e-02,-2.114101590948987419e-01,1.648711373392331980e-01,2.247989959678294847e-01,1.723056366997652855e-01,2.457854586889837711e-02,2.182541032634522926e-01,4.327773734633052344e-02,5.027289313583380159e-02,-2.932739384362352542e-02,-1.102856107079621673e-01,-1.117337867177389532e-01,-2.407112807330304138e-01,-5.686165478637652398e-02,1.610274655947911693e-01,9.998780300689731615e-02,4.580936439338968436e-01,5.931070678386150125e-02,-2.094731218498606662e-01,-6.604362570808814184e-03,1.553335330431953043e-01,3.768473554370336820e-01,-1.147416409364111940e-02,2.310561660298654785e-01,3.984705180158950588e-01,2.076528010465881757e-01,1.585585180384993242e-01,1.073481327101257349e-01,2.714407570640407497e-01,1.883957482060228950e-01,2.988253767235782288e-01,9.778311758521976427e-02,2.221368553972242199e-01,6.432710559350587332e-01,2.535561467202303576e-01,2.919455520361022849e-01,8.536601320949311830e-03,4.905362544646498790e-01,1.691937780906573041e-01,1.103417468307688609e-01,2.358054180237793840e-02,2.786056482105521703e-01,1.005042942785993043e-01,1.963293758099008690e-01,5.134449727913726891e-01,1.925218941780847820e-02,4.304707023017613210e-01,1.716232201734624319e-01,1.624446832464985224e-01,-1.124048395404130679e-01,-1.463070397717424441e-02,1.992862074685183560e-01,2.634659606441314139e-01,4.092475139719946586e-01,3.161159662096509892e-01,2.274509445485058678e-01,6.173783643235017382e-02,9.062056420390918188e-02,2.675726551440937850e-01,3.520190764421635143e-01,6.681459968834894958e-02,1.584791153498341931e-01,3.497128742767943721e-01,-3.883526829294012359e-03,5.719496488803385015e-01,1.862771078241987621e-01,2.235041658067250248e-01,8.167210911573294374e-02,5.078017065270993280e-01,1.671737330046480230e-01,2.908184848357369123e-01,7.853698270692971439e-02,1.660976354180259129e-01,3.812984979098864025e-01,2.198501067501744954e-01,2.705653722831175001e-01,7.803454275298031366e-03,-2.931946894647501772e-02,1.198814145468145020e-01,3.750322287446360980e-01,6.069756987114965224e-02,2.570108566487531720e-01,1.158147023978175066e-01,1.824024962068942768e-01,3.136439100231571131e-01,1.398132944326896561e-02,-1.017818133802626118e-01,2.588235617823644308e-01,1.722521242064099234e-01,9.972434695813611749e-02,-4.855710961336092389e-03,1.445840451329482579e-01,-9.187180951290516151e-02,5.993955212737672039e-02,-8.968726975637540677e-02,2.121621174853533520e-01,1.038566230702390319e-01,7.186006784514140100e-02,-7.219438778909890997e-02,8.809845505933365517e-02,-1.495926191464365396e-02,1.935881380256870010e-01,2.717559979849795138e-01,-7.916432004911171105e-02,-1.296782887618829205e-01,-1.095755996975078111e-01,8.608117471624215683e-05,-1.999114665102738053e-01,-3.470113756144772160e-02,-1.069264472807066046e-01,3.407423230901294176e-01,-4.923799165052254734e-02,1.469805855899532498e-01,-8.320256981107095051e-02,-8.543820792009725051e-02,1.379825160837950537e-01,-8.642115069183006759e-02,-2.917190115379151849e-01,-1.168572963365783514e-02,1.888615960891907447e-02,6.337784455013897866e-02,6.419098992490192279e-02,5.730313604947992467e-02,-1.055173308434750185e-01,1.057390485484904635e-01,5.283396914589893328e-02,2.263310387523000816e-02,6.355925566025660486e-03,1.736417667107010288e-01,-2.379420843354954629e-01,1.183363346413950912e-01,1.343406802815509393e-01,7.742773181188770948e-02,-7.654229131536202657e-02,-2.480133028413309196e-02,1.263934960907102945e-01,-1.180198285963456051e-01,-1.245721062882408775e-01,3.695233914419079196e-02,4.303225706400953809e-02,-4.104780395366888768e-01,6.667080479915568625e-02,-2.065358070541079560e-01,-2.432092068706534667e-03,-2.363203902802933909e-01,-1.073260115212208432e-01,-4.947259032203382700e-02,-8.356830791205807629e-02,1.940517450017485157e-01,1.077775077251038605e-01,1.697936028398975006e-01,7.814758396210921831e-02,-1.695609879649797036e-01,-2.087775819519952780e-01,-1.908319271069167100e-02,2.885871954919186355e-01,-1.041946657952762256e-01,-3.296046162207529329e-01,-1.627103610332902850e-01,-4.603803771129287847e-01,7.845082026087696336e-02,-1.965170319742288452e-01,-1.056399754713413866e-02,-4.986628663812121137e-02,2.664752959833734461e-02,-2.216863610497561976e-01,-5.055176848526942157e-01,-3.696557948871577737e-01,-4.714796178531345250e-01,1.437479621377898142e-01,-4.835677273206390736e-01,-4.529776291413152856e-01,-4.822952688576974678e-01,-1.848965057293707748e-01,-1.075967795657422482e-01,-2.530776300416656688e-01,7.138001946853807234e-02,-4.723377708959735077e-01,-4.539265083995647210e-01,-2.016402763702719592e-01,-1.785197799805303409e-01,-7.058619980924307757e-02,-7.855213726937194940e-02,-3.017654881605846273e-01,-2.084978382762403826e-01,-9.746576738292032915e-02,7.209977282795543285e-02,-4.364127718541261913e-01,-1.668996479909142794e-01,-3.067219224989120585e-01,-2.201264649119668848e-01,-2.751046312258296211e-01,-1.705228222139615613e-01,-4.389717547457140656e-02,-1.142997994903459935e-01,-1.266715919983725236e-01,-6.572498975644299746e-01,-3.358636137149109691e-01,-2.386745463718932536e-02,7.071701808656959132e-02,-5.297142129746154060e-01,-1.686165852641470231e-01,-4.085391020023218522e-01,-1.496208062793548121e-01,4.574293202590545837e-02,-3.886065144269535976e-01,-1.468544271208807039e-01,-1.416465958826611804e-01,-4.487338277750231863e-01,-2.315054180218707736e-01,-2.665087444405097594e-01,8.979928796112238154e-02,-3.058016840707850625e-01,-2.608186049182944499e-01,-1.668707424226144598e-01,-3.500373531858186893e-01,-2.941417982593104719e-01,-1.964927690902905644e-01,-2.840296076923531920e-01,-1.931057532775450336e-01,-7.445763687692616428e-02,-3.931563714274861621e-01,-2.189836962631618311e-01,-4.554352149099176739e-01,2.586549831705153152e-02,-2.024856098199053767e-01,9.767026028256286033e-03,1.180864620378910823e-01,-2.383916640999755865e-02,1.770692649124914753e-01,-3.711337576177260039e-02,-6.321029568788037734e-02,4.651719381091860145e-02,-2.794597142578629789e-01,-2.880972923427382870e-01,-4.950487203814908921e-01,-1.568585564413160216e-01,-1.532567875883371622e-01,-4.468614478540436918e-01,-3.574249986331045625e-01,-6.598269944265596765e-01,-3.504244034006331332e-01,-2.358799040532362223e-01,-2.090100839174910408e-01,-1.447830876771913911e-01,5.203430895743762497e-01,4.749947865183232198e-01
